FANN_FLO_2.1
num_layers=3
learning_rate=0.700000
connection_rate=1.000000
network_type=0
learning_momentum=0.000000
training_algorithm=2
train_error_function=1
train_stop_function=0
cascade_output_change_fraction=0.010000
quickprop_decay=-0.000100
quickprop_mu=1.750000
rprop_increase_factor=1.200000
rprop_decrease_factor=0.500000
rprop_delta_min=0.000000
rprop_delta_max=50.000000
rprop_delta_zero=0.100000
cascade_output_stagnation_epochs=12
cascade_candidate_change_fraction=0.010000
cascade_candidate_stagnation_epochs=12
cascade_max_out_epochs=150
cascade_min_out_epochs=50
cascade_max_cand_epochs=150
cascade_min_cand_epochs=50
cascade_num_candidate_groups=2
bit_fail_limit=3.49999999999999977796e-01
cascade_candidate_limit=1.00000000000000000000e+03
cascade_weight_multiplier=4.00000000000000022204e-01
cascade_activation_functions_count=10
cascade_activation_functions=3 5 7 8 10 11 14 15 16 17 
cascade_activation_steepnesses_count=4
cascade_activation_steepnesses=2.50000000000000000000e-01 5.00000000000000000000e-01 7.50000000000000000000e-01 1.00000000000000000000e+00 
layer_sizes=4 5 2 
scale_included=0
neurons (num_inputs, activation_function, activation_steepness)=(0, 0, 0.00000000000000000000e+00) (0, 0, 0.00000000000000000000e+00) (0, 0, 0.00000000000000000000e+00) (0, 0, 0.00000000000000000000e+00) (4, 5, 5.00000000000000000000e-01) (4, 5, 5.00000000000000000000e-01) (4, 5, 5.00000000000000000000e-01) (4, 5, 5.00000000000000000000e-01) (0, 5, 0.00000000000000000000e+00) (5, 5, 5.00000000000000000000e-01) (0, 5, 0.00000000000000000000e+00) 
connections (connected_to_neuron, weight)=(0, 4.69270814320200013725e-01) (1, 1.16177798641757507037e-01) (2, -8.81354724357827357117e-03) (3, 4.61257808249149470203e-02) (0, 3.96022144815080578972e-01) (1, 1.47164100242690581988e-01) (2, 5.06132627536556856107e-03) (3, 1.12528257105842605101e-01) (0, 7.61290440472018437035e-01) (1, 1.20099633076412937172e+00) (2, 6.92264769484831066215e-01) (3, 1.28354235011853323734e+00) (0, -4.43129838302978029674e-01) (1, -6.82134605519935544038e-01) (2, -1.41378805982036975797e-01) (3, -7.14881654404565747285e-01) (4, 1.20358185304240722369e-01) (5, 1.81302206052379150103e-01) (6, -7.33996789478227551484e-01) (7, 8.75661516698252873070e-01) (8, -5.47743942164346631074e-01) 
